-4096,12288,0,-4096,12288,0,-4096,12288,0,-4096,12288,0,-4096,8192,0,-4096,8192,0,-4096,8192,0,-4096,8192,0,-4096,8192,0,-4096,12288,0,-4096,12288,0,-4096,12288,0,-4096,12288,0,-4096,12288,0,-4096,8192,0,-4096,12288,0,-4096,12288,0,-4096,12288,0,-4096,12288,0,-4096,8192,0,-4096,12288,0,-4096,12288,0,-4096,12288,0,-4096,12288,0,-4096,8192,0,-4096,12288,0,-4096,8192,0,-4096,8192,0,-4096,12288,0,-4096,8192,0,-4096,12288,0,-4096,12288,0,-4096,8192,0,-4096,8192,0,-4096,12288,0,-4096,8192,8192,-4096,12288,0,-4096,8192,0,-4096,8192,0,-4096,12288,0,-4096,8192,0,-4096,8192,0,-4096,12288,0,-4096,12288,0,-4096,8192,0,-4096,12288,0,-4096,8192,0,-4096,8192,0,-4096,8192,8192,-4096,8192,0,-4096,8192,0,-4096,12288,0,-4096,12288,0,-4096,12288,0,-4096,12288,0,-4096,12288,0,-4096,8192,8192,-4096,8192,0,-4096,8192,0,-4096,12288,0,-4096,12288,0,-4096,8192,0,-4096,8192,8192,-4096,12288,0,-4096,8192,0,-4096,12288,0,-4096,12288,0,-4096,8192,0,-4096,8192,0,-4096,8192,0,-4096,8192,8192,-4096,12288,0,-4096,12288,0,-4096,12288,0,-4096,12288,0,-4096,8192,8192,-4096,8192,8192,-4096,12288,0,-4096,12288,0,-4096,12288,0,-4096,12288,0,-4096,12288,0,-4096,12288,0,-4096,12288,0,-4096,12288,0,-4096,12288,0,-4096,12288,0,-4096,8192,0,-4096,12288,0,-4096,8192,0,-4096,12288,0,-4096,8192,0,-4096,8192,0,-4096,8192,0,-4096,8192,0,-4096,8192,0,-4096,8192,0,-4096,12288,0,-4096,8192,0,-4096,8192,0,-4096,12288,0,-4096,12288,0,-4096,8192,0,-4096,8192,0,-4096,8192,0,-4096,8192,8192,-4096,8192,0,-4096,12288,0,-4096,8192,0,-4096,8192,8192,-4096,8192,8192,-4096,12288,0,-4096,12288,0,-4096,12288,0,-4096,12288,0,-4096,12288,0,-4096,8192,0,-4096,8192,0,-4096,8192,8192,-4096,8192,0,-4096,8192,8192,-4096,8192,8192,-4096,8192,8192,-4096,12288,0,-4096,8192,0,-4096,8192,0,-4096,8192,0,-4096,12288,0,-4096,8192,0,-4096,8192,0,-4096,8192,0,-4096,8192,0,-4096,12288,0,-4096,12288,0,-4096,12288,0,-4096,12288,0,-4096,12288,0,-4096,8192,0,-4096,12288,0,-4096,8192,0,-4096,12288,0,-4096,12288,0,-4096,12288,0,-4096,8192,0,-4096,8192,0,-4096,8192,0,-4096,8192,0,-4096,8192,0,-4096,12288,0,-4096,12288,0,-4096,12288,0,-4096,8192,0,-4096,8192,8192,-4096,12288,0,-4096,12288,0,-4096,8192,0,-4096,8192,0,-4096,12288,0,-4096,8192,0,-4096,8192,0,-4096,8192,8192,-4096,12288,0,-4096,8192,0,-4096,12288,0,-4096,8192,8192,-4096,12288,0,-4096,12288,0,-4096,12288,0,-4096,12288,0,-4096,12288,0,-4096,12288,0,-4096,12288,0,-4096,8192,0,-4096,8192,0,-4096,8192,0,-4096,12288,0,-4096,8192,8192,-4096,8192,8192,-4096,8192,0,-4096,8192,0,-4096,8192,0,-4096,8192,0,-4096,8192,0,-4096,12288,0,-4096,12288,0,-4096,8192,0,-4096,12288,0,-4096,8192,8192,-4096,12288,0,-4096,8192,0,-4096,8192,0,-4096,8192,0,-4096,8192,0,-4096,12288,0,-4096,12288,0,-4096,8192,0,-4096,8192,0,-4096,12288,0,-4096,8192,0,-4096,8192,0,-4096,12288,0,-4096,12288,0,-4096,8192,8192,-4096,8192,0,-4096,12288,0,-4096,12288,0,-4096,8192,8192,-4096,8192,8192,-4096,12288,0,-4096,12288,0,-4096,8192,0,-4096,8192,0,-4096,12288,0,-4096,12288,0,-4096,12288,0,-4096,8192,8192,-4096,12288,0,-4096,8192,8192,-4096,8192,0,-4096,8192,0,-4096,12288,0,-4096,12288,0,-4096,12288,0,-4096,8192,8192,-4096,8192,8192,-4096,12288,0,-4096,12288,0,-4096,8192,0,-4096,12288,0,-4096,12288,0,-4096,8192,8192,-4096,12288,0,-4096,12288,0,-4096,12288,0,-4096,8192,8192,-4096,8192,8192,-4096,8192,0,-4096,8192,0,-4096,12288,0,-4096,12288,0,-4096,8192,0,-4096,8192,8192,-4096,8192,8192,-4096,12288,0,-4096,12288,0,-4096,8192,0,-4096,8192,0,-4096,8192,0,-4096,8192,8192,-4096,8192,8192,-4096,12288,0,-4096,12288,0,-4096,12288,0,-4096,12288,0,-4096,8192,0,-4096,8192,8192,-4096,12288,0,-4096,8192,0,-4096,12288,0,-4096,12288,0,-4096,12288,0,-4096,8192,8192,-4096,8192,0,-4096,8192,0,-4096,8192,0,-4096,12288,0,-4096,8192,0,-4096,12288,0,-4096,8192,0,-4096,8192,0,-4096,12288,0,-4096,12288,0,-4096,8192,0,-4096,12288,0,-4096,12288,0,-4096,12288,0,-4096,8192,0,-4096,12288,0,-4096,8192,0,-4096,8192,0,-4096,8192,0,-4096,8192,0,-4096,12288,0,-4096,12288,0,-4096,12288,0,-4096,12288,0,-4096,8192,0,-4096,8192,0,-4096,8192,8192,-4096,12288,0,-4096,12288,0,-4096,8192,8192,-4096,8192,0,-4096,8192,0,-4096,12288,0,-4096,8192,0,-4096,12288,0,-4096,12288,0,-4096,8192,0,-4096,12288,0,-4096,12288,0,-4096,12288,0,-4096,12288,0,-4096,12288,0,-4096,8192,0,-4096,8192,0,-4096,8192,0,-4096,8192,0,-4096,8192,0,-4096,12288,0,-4096,12288,0,-4096,12288,0,-4096,12288,0,-4096,12288,0,-4096,12288,0,-4096,12288,0,-4096,8192,0,-4096,8192,8192,-4096,8192,8192,-4096,8192,8192,-4096,8192,0,-4096,12288,0,-4096,12288,0,-4096,12288,0,-4096,12288,0,-4096,12288,0,-4096,12288,0,-4096,8192,8192,-4096,8192,0,-4096,8192,0,-4096,12288,0,-4096,8192,0,-4096,12288,0,-4096,12288,0,-4096,8192,0,-4096,12288,0,-4096,8192,8192,-4096,8192,8192,-4096,12288,0,-4096,12288,0,-4096,12288,0,-4096,12288,0,-4096,8192,0,-4096,12288,0,-4096,12288,0,-4096,12288,0,-4096,12288,0,-4096,12288,0,-4096,12288,0,-4096,8192,0,-4096,12288,0,-4096,8192,0,-4096,12288,0,-4096,8192,0,-4096,8192,0,-4096,8192,0,-4096,12288,0,-4096,12288,0,-4096,12288,0,-4096,8192,8192,-4096,8192,8192,-4096,8192,8192,-4096,8192,8192,-4096,8192,8192,-4096,12288,0,-4096,12288,0,-4096,8192,8192,-4096,8192,8192,-4096,12288,0,-4096,12288,0,-4096,12288,0,-4096,12288,0,-4096,12288,0,-4096,8192,8192,-4096,8192,8192,-4096,8192,8192,-4096,12288,0,-4096,8192,0,-4096,8192,0,-4096,8192,0,-4096,12288,0,-4096,12288,0,-4096,12288,0,-4096,12288,0,-4096,8192,0,-4096,12288,0,-4096,12288,0,-4096,12288,0,-4096,12288,0,-4096,12288,0,-4096,12288,0,-4096,12288,0,-4096,8192,0,-4096,12288,0,-4096,12288,0,-4096,12288,0,-4096,12288,0,-4096,12288,0,-4096,8192,0,-4096,12288,0,-4096,12288,0,-4096,12288,0,-4096,12288,0,-4096,8192,0,-4096,8192,0,-4096,12288,0,-4096,12288,0,-4096,12288,0,-4096,12288,0,-4096,12288,0,-4096,8192,0,-4096,12288,0,-4096,8192,8192,-4096,8192,0,-4096,8192,0,-4096,8192,8192,-4096,8192,8192,-4096,12288,0,-4096,12288,0,-4096,12288,0,-4096,12288,0,-4096,8192,0,-4096,8192,0,-4096,12288,0,-4096,12288,0,-4096,12288,0,-4096,8192,0,-4096,12288,0,-4096,12288,0,-4096,12288,0,-4096,12288,0,-4096,8192,0,-4096,8192,0,-4096,12288,0,-4096,12288,0,-4096,8192,0,-4096,8192,0,-4096,12288,0,-4096,8192,0,-4096,12288,0,-4096,12288,0,-4096,12288,0,-4096,12288,0,-4096,8192,0,-4096,8192,8192,-4096,8192,0,-4096,8192,0,-4096,12288,0,-4096,8192,0,-4096,12288,0,-4096,12288,0,-4096,8192,8192,-4096,8192,0,-4096,8192,8192,-4096,8192,8192,-4096,8192,0,-4096,8192,0,-4096,8192,0,-4096,12288,0,-4096,8192,8192,-4096,8192,8192,-4096,8192,8192,-4096,12288,0,-4096,8192,8192,-4096,8192,8192,-4096,12288,0,-4096,8192,0,-4096,12288,0,-4096,12288,0,-4096,12288,0,-4096,8192,0,-4096,12288,0,-4096,12288,0,-4096,8192,8192,-4096,8192,0,-4096,12288,0,-4096,12288,0,-4096,12288,0,-4096,8192,8192,-4096,12288,0,-4096,12288,0,-4096,8192,8192,-4096,8192,0,-4096,12288,0,-4096,12288,0,-4096,12288,0,-4096,12288,0,-4096,8192,0,-4096,8192,0,-4096,8192,0,-4096,8192,8192,-4096,12288,0,-4096,12288,0,-4096,12288,0,-4096,12288,0,-4096,8192,0,-4096,8192,0,-4096,12288,0,-4096,12288,0,-4096,12288,0,-4096,12288,0,-4096,12288,0,-4096,12288,0,-4096,12288,0,-4096,12288,0,-4096,8192,0,-4096,12288,0,-4096,12288,0,-4096,12288,0,-4096,8192,0,-4096,12288,0,-4096,12288,0,-4096,12288,0,-4096,12288,0,-4096,12288,0,-4096,12288,0,-4096,12288,0,-4096,8192,0,-4096,12288,0,-4096,12288,0,-4096,8192,8192,-4096,8192,8192,-4096,8192,0,-4096,8192,0,-4096,8192,0,-4096,8192,8192,-4096,12288,0,-4096,12288,0,-4096,12288,0,-4096,8192,8192,-4096,12288,0,-4096,8192,0,-4096,12288,0,-4096,12288,0,-4096,12288,0,-4096,12288,0,-4096,12288,0,-4096,8192,0,-4096,8192,0,-4096,8192,0,-4096,8192,0,-4096,12288,0,-4096,8192,8192,-4096,8192,0,-4096,12288,0,-4096,12288,0,-4096,8192,8192,-4096,12288,0,-4096,8192,8192,-4096,8192,8192,-4096,8192,0,-4096,12288,0,-4096,8192,0,-4096,8192,0,-4096,8192,8192,-4096,12288,0,-4096,12288,0,-4096,12288,0,-4096,12288,0,-4096,8192,8192,-4096,12288,0,-4096,12288,0,-4096,12288,0,-4096,12288,0,-4096,8192,0,-4096,8192,0,-4096,8192,0,-4096,8192,0,-4096,12288,0,-4096,12288,0,-4096,12288,0,-4096,12288,0,-4096,8192,0,-4096,12288,0,-4096,8192,0,-4096,8192,0,-4096,12288,0,-4096,12288,0,-4096,12288,0,-4096,12288,0,-4096,12288,0,-4096,12288,0,-4096,12288,0,-4096,12288,0,-4096,8192,0,-4096,12288,0,-4096,12288,0,-4096,8192,8192,-4096,8192,8192,-4096,12288,0,-4096,12288,0,-4096,8192,8192,-4096,8192,8192,-4096,12288,0,-4096,8192,8192,-4096,8192,8192,-4096,12288,0,-4096,12288,0,-4096,8192,0,-4096,12288,0,-4096,8192,0,-4096,8192,0,-4096,8192,0,-4096,8192,0,-4096,12288,0,-4096,12288,0,-4096,8192,0,-4096,8192,0,-4096,12288,0,-4096,8192,0,-4096,12288,0,-4096,8192,0,-4096,8192,0,-4096,12288,0,-4096,8192,0,-4096,12288,0,-4096,12288,0,-4096,12288,0,-4096,12288,0,-4096,12288,0,-4096,8192,0,-4096,12288,0,-4096,8192,0,-4096,8192,0,-4096,8192,8192,-4096,8192,8192,-4096,8192,0,-4096,8192,0,-4096,12288,0,-4096,8192,0,-4096,8192,0,-4096,8192,0,-4096,12288,0,-4096,8192,0,-4096,12288,0,-4096,12288,0,-4096,12288,0,-4096,8192,0,-4096,12288,0,-4096,8192,0,-4096,12288,0,-4096,12288,0,-4096,12288,0,-4096,12288,0,-4096,8192,0,-4096,12288,0,-4096,12288,0,-4096,12288,0,-4096,8192,0,-4096,12288,0,-4096,12288,0,-4096,12288,0,-4096,12288,0,-4096,12288,0,-4096,12288,0,-4096,8192,8192,-4096,12288,0,-4096,12288,0,-4096,12288,0,-4096,8192,8192,-4096,12288,0,-4096,12288,0,-4096,12288,0,-4096,8192,0,-4096,8192,0,-4096,8192,8192,-4096,8192,8192,-4096,8192,0,-4096,12288,0,-4096,8192,0,-4096,8192,0,-4096,12288,0,-4096,12288,0,-4096,8192,0,-4096,8192,0,-4096,8192,8192,-4096,12288,0,-4096,12288,0,-4096,8192,8192,-4096,8192,8192,-4096,8192,8192,-4096,8192,0,-4096,8192,0,-4096,8192,8192,-4096,8192,0,-4096,12288,0,-4096,8192,8192,-4096,12288,0,-4096,12288,0,-4096,12288,0,-4096,8192,0,-4096,8192,8192,-4096,12288,0,-4096,12288,0,-4096,8192,8192,-4096,8192,0,-4096,8192,0,-4096,12288,0,-4096,12288,0,-4096,8192,8192,-4096,8192,8192,-4096,8192,0,-4096,12288,0,-4096,8192,0,-4096,8192,8192,-4096,8192,8192,-4096,8192,8192,-4096,12288,0,-4096,12288,0,-4096,8192,0,-4096,8192,0,-4096,12288,0,-4096,12288,0,-4096,8192,0,-4096,8192,0,-4096,8192,0,-4096,12288,0,-4096,8192,0,-4096,8192,0,-4096,8192,0,-4096,12288,0,-4096,8192,0,-4096,8192,8192,-4096,12288,0,-4096,8192,0,-4096,8192,0,-4096,8192,8192,-4096,8192,0,-4096,8192,0,-4096,12288,0,-4096,12288,0,-4096,12288,0,-4096,12288,0,-4096,12288,0,-4096,12288,0,-4096,12288,0,-4096,12288,0,-4096,12288,0,-4096,12288,0,-4096,8192,0,-4096,8192,0,-4096,8192,0,-4096,8192,0,-4096,8192,0,-4096,12288,0,-4096,8192,0,-4096,12288,0,-4096,12288,0,-4096,12288,0,-4096,8192,0,-4096,8192,0,-4096,8192,8192,-4096,8192,8192,-4096,8192,0,-4096,12288,0,-4096,12288,0,-4096,8192,8192,-4096,8192,8192,-4096,8192,8192,-4096,12288,0,-4096,12288,0,-4096,8192,8192,-4096,12288,0,-4096,12288,0,-4096,8192,0,-4096,8192,0,-4096,8192,0,-4096,12288,0,-4096,12288,0,-4096,12288,0,-4096,8192,8192,-4096,12288,0,-4096,12288,0,-4096,8192,0,-4096,12288,0,-4096,8192,8192,-4096,8192,0,-4096,8192,0,-4096,8192,8192,-4096,12288,0,-4096,8192,0,-4096,8192,0,-4096,8192,0,-4096,8192,0,-4096,8192,8192,-4096,12288,0,-4096,8192,8192,-4096,12288,0,-4096,12288,0,-4096,12288,0,-4096,12288,0,-4096,12288,0,-4096,12288,0,-4096,8192,0,-4096,8192,0,-4096,12288,0,-4096,12288,0,-4096,12288,0,-4096,8192,0,-4096,12288,0,-4096,8192,8192,-4096,8192,0,-4096,12288,0,-4096,8192,0,-4096,8192,0,-4096,12288,0,-4096,12288,0,-4096,8192,8192,-4096,12288,0,-4096,8192,0,-4096,8192,0,-4096,12288,0,-4096,8192,0,-4096,12288,0,-4096,12288,0,-4096,8192,0,-4096,8192,0,-4096,8192,0,-4096,12288,0,-4096,8192,8192,-4096,12288,0,-4096,12288,0,-4096,12288,0,-4096,12288,0,-4096,8192,0,-4096,8192,0,-4096,12288,0,-4096,12288,0,-4096,8192,0,-4096,12288,0,-4096,12288,0,-4096,8192,0,-4096,12288,0,-4096,8192,8192,-4096,12288,0,-4096,12288,0,-4096,12288,0,-4096,12288,0,-4096,12288,0,-4096,12288,0,-4096,12288,0,-4096,12288,0,-4096,8192,0,-4096,8192,0,-4096,8192,0,-4096,12288,0,-4096,12288,0,-4096,12288,0,-4096,12288,0,-4096,8192,0,-4096,8192,0,-4096,8192,8192,-4096,12288,0,-4096,12288,0,-4096,12288,0,-4096,8192,8192,-4096,8192,0,-4096,12288,0,-4096,12288,0,-4096,8192,8192,-4096,12288,0,-4096,8192,8192,-4096,8192,8192,-4096,8192,0,-4096,8192,0,-4096,8192,8192,-4096,8192,8192,-4096,12288,0,-4096,8192,8192,-4096,12288,0,-4096,8192,0,-4096,12288,0,-4096,8192,0,-4096,8192,0,-4096,8192,0,-4096,12288,0,-4096,8192,8192,-4096,8192,0,-4096,12288,0,-4096,12288,0,-4096,12288,0,-4096,12288,0,-4096,12288,0,-4096,8192,0,-4096,12288,0,-4096,12288,0,-4096,12288,0,-4096,12288,0,-4096,12288,0,-4096,12288,0,-4096,12288,0,-4096,12288,0,-4096,8192,0,-4096,8192,0,-4096,8192,0,-4096,12288,0,-4096,8192,0,-4096,8192,0,-4096,12288,0,-4096,8192,0,-4096,8192,0,-4096,12288,0,-4096,8192,0,-4096,12288,0,-4096,8192,0,-4096,8192,0,-4096,8192,0,-4096,8192,0,-4096,8192,0,-4096,12288,0,-4096,12288,0,-4096,8192,8192,-4096,8192,8192,-4096,8192,0,-4096,12288,0,-4096,8192,0,-4096,12288,0,-4096,12288,0,-4096,12288,0,-4096,12288,0,-4096,8192,8192,-4096,12288,0,-4096,8192,0,-4096,8192,0,-4096,12288,0,-4096,12288,0,-4096,12288,0,-4096,12288,0,-4096,12288,0,-4096,12288,0,-4096,12288,0,-4096,12288,0,-4096,12288,0,-4096,8192,0,-4096,8192,0,-4096,12288,0,-4096,12288,0,-4096,12288,0,-4096,12288,0,-4096,8192,0,-4096,8192,0,-4096,12288,0,-4096,12288,0,-4096,12288,0,-4096,12288,0,-4096,8192,0,-4096,8192,8192,-4096,8192,8192,-4096,12288,0,-4096,8192,8192,-4096,8192,8192,-4096,8192,8192,-4096,12288,0,-4096,8192,8192,-4096,8192,0,-4096,8192,8192,-4096,8192,0,-4096,8192,8192,-4096,12288,0,-4096,8192,8192,-4096,8192,0,-4096,8192,0,-4096,8192,8192,-4096,8192,0,-4096,8192,0,-4096,8192,8192,-4096,8192,8192,-4096,12288,0,-4096,8192,8192,-4096,8192,0,-4096,12288,0,-4096,8192,0,-4096,8192,0,-4096,8192,0,-4096,12288,0,-4096,12288,0,-4096,12288,0,-4096,8192,8192,-4096,8192,8192,-4096,12288,0,-4096,8192,8192,-4096,8192,8192,-4096,8192,0,-4096,8192,0,-4096,8192,0,-4096,12288,0,-4096,8192,0,-4096,12288,0,-4096,8192,0,-4096,12288,0,-4096,8192,8192,-4096,8192,8192,-4096,12288,0,-4096,12288,0,-4096,8192,0,-4096,8192,0,-4096,12288,0,-4096,12288,0,-4096,8192,0,-4096,8192,0,-4096,12288,0,-4096,12288,0,-4096,12288,0,-4096,12288,0,-4096,8192,0,-4096,8192,0,-4096,8192,0,-4096,12288,0,-4096,12288,0,-4096,8192,8192,-4096,12288,0,-4096,12288,0,-4096,8192,8192,-4096,8192,8192,-4096,8192,0,-4096,12288,0,-4096,8192,8192,-4096,8192,8192,-4096,8192,8192,-4096,12288,0,-4096,12288,0,-4096,8192,8192,-4096,12288,0,-4096,12288,0,-4096,12288,0,-4096,8192,0,-4096,8192,0,-4096,8192,0,-4096,8192,0,-4096,8192,0,-4096,12288,0,-4096,12288,0,-4096,12288,0,-4096,12288,0,-4096,12288,0,-4096,8192,0,-4096,8192,0,-4096,12288,0,-4096,8192,0,-4096,8192,0,-4096,12288,0,-4096,12288,0,-4096,12288,0,-4096,12288,0,-4096,8192,8192,-4096,12288,0,-4096,8192,8192,-4096,8192,8192,-4096,8192,0,-4096,12288,0,-4096,12288,0,-4096,8192,0,-4096,8192,0,-4096,8192,0,-4096,12288,0,-4096,12288,0,-4096,12288,0,-4096,8192,8192,-4096,8192,8192,-4096,8192,0,-4096,8192,0,-4096,12288,0,-4096,8192,0,-4096,12288,0,-4096,8192,0,-4096,12288,0,-4096,8192,0,-4096,12288,0,-4096,12288,0,-4096,8192,0,-4096,12288,0,-4096,12288,0,-4096,12288,0,-4096,12288,0,-4096,8192,8192,-4096,12288,0,-4096,12288,0,-4096,12288,0,-4096,8192,0,-4096,8192,0,-4096,8192,8192,-4096,8192,8192,-4096,12288,0,-4096,8192,8192,-4096,8192,0,-4096,8192,0,-4096,12288,0,-4096,8192,8192,-4096,8192,0,-4096,8192,0,-4096,12288,0,-4096,8192,0,-4096,12288,0,-4096,12288,0,-4096,8192,8192,-4096,8192,8192,-4096,8192,8192,-4096,12288,0,-4096,8192,8192,-4096,8192,0,-4096,8192,8192,-4096,8192,0,-4096,8192,0,-4096,8192,0,-4096,8192,0,-4096,12288,0,-4096,8192,0,-4096,12288,0,-4096,12288,0,-4096,8192,0,-4096,12288,0,-4096,12288,0,-4096,12288,0,-4096,12288,0,-4096,8192,0,-4096,12288,0,-4096,8192,0,-4096,8192,0,-4096,12288,0,-4096,12288,0,-4096,8192,0,-4096,8192,0,-4096,8192,0,-4096,8192,0,-4096,12288,0,-4096,12288,0,-4096,8192,0,-4096,8192,0,-4096,12288,0,-4096,12288,0,-4096,12288,0,-4096,8192,0,-4096,8192,0,-4096,8192,0,-4096,12288,0,-4096,8192,0,-4096,8192,0,-4096,8192,8192,-4096,8192,8192,-4096,8192,8192,-4096,12288,0,-4096,8192,8192,-4096,12288,0,-4096,12288,0,-4096,8192,0,-4096,12288,0,-4096,12288,0,-4096,12288,0,-4096,12288,0,-4096,12288,0,-4096,12288,0,-4096,12288,0,-4096,12288,0,-4096,12288,0,-4096,12288,0,-4096,8192,0,-4096,12288,0,-4096,12288,0,-4096,12288,0,-4096,12288,0,-4096,12288,0,-4096,8192,8192,-4096,12288,0,-4096,12288,0,-4096,12288,0,-4096,12288,0,-4096,12288,0,-4096,12288,0,-4096,12288,0,-4096,12288,0,-4096,8192,0,-4096,8192,0,-4096,12288,0,-4096,12288,0,-4096,12288,0,-4096,12288,0,-4096,12288,0,-4096,8192,8192,-4096,8192,0,-4096,8192,8192,-4096,8192,8192,-4096,8192,8192,-4096,12288,0,-4096,12288,0,-4096,8192,8192,-4096,12288,0,-4096,12288,0,-4096,8192,0,-4096,8192,0,-4096,12288,0,-4096,8192,0,-4096,8192,0,-4096,8192,0,-4096,12288,0,-4096,12288,0,-4096,12288,0,-4096,12288,0,-4096,12288,0,-4096,12288,0,-4096,8192,0,-4096,8192,0,-4096,8192,0,-4096,12288,0,-4096,8192,0,-4096,12288,0,-4096,12288,0,-4096,12288,0,-4096,12288,0,-4096,12288,0,-4096,8192,8192,-4096,8192,8192,-4096,8192,8192,-4096,8192,8192,-4096,12288,0,-4096,12288,0,-4096,12288,0,-4096,12288,0,-4096,12288,0,-4096,12288,0,-4096,12288,0,-4096,12288,0,-4096,8192,0,-4096,12288,0,-4096,12288,0,-4096,12288,0,-4096,12288,0,-4096,8192,8192,-4096,8192,0,-4096,12288,0,-4096,8192,0,-4096,12288,0,-4096,8192,0,-4096,12288,0,-4096,8192,8192,-4096,8192,8192,-4096,8192,0,-4096,12288,0,-4096,8192,0,-4096,8192,8192,-4096,12288,0,-4096,8192,0,-4096,8192,0,-4096,8192,0,-4096,8192,8192,-4096,8192,0,-4096,12288,0,-4096,12288,0,-4096,12288,0,-4096,8192,0,-4096,12288,0,-4096,8192,0,-4096,8192,0,-4096,12288,0,-4096,8192,0,-4096,12288,0,-4096,12288,0,-4096,8192,8192,-4096,12288,0,-4096,12288,0,-4096,12288,0,-4096,12288,0,-4096,8192,0,-4096,8192,8192,-4096,8192,0,-4096,8192,8192,-4096,8192,8192,-4096,8192,8192,-4096,12288,0,-4096,12288,0,-4096,12288,0,-4096,12288,0,-4096,8192,0,-4096,8192,0,-4096,12288,0,-4096,12288,0,-4096,12288,0,-4096,12288,0,-4096,12288,0,-4096,12288,0,-4096,12288,0,-4096,12288,0,-4096,12288,0,-4096,12288,0,-4096,12288,0,-4096,12288,0,-4096,12288,0,-4096,12288,0,-4096,12288,0,-4096,12288,0,-4096,8192,8192,-4096,12288,0,-4096,8192,8192,-4096,8192,0,-4096,8192,8192,-4096,12288,0,-4096,8192,8192,-4096,8192,0,-4096,8192,8192,-4096,8192,8192,-4096,8192,8192,-4096,8192,0,-4096,8192,8192,-4096,8192,8192,-4096,8192,8192,-4096,8192,8192,-4096,8192,8192,-4096,8192,8192,-4096,8192,8192,-4096,8192,8192,-4096,12288,0,-4096,12288,0,-4096,12288,0,-4096,8192,8192,-4096,12288,0,-4096,12288,0,-4096,8192,8192,-4096,12288,0,-4096,12288,0,-4096,12288,0,-4096,8192,0,-4096,12288,0,-4096,12288,0,-4096,12288,0,-4096,12288,0,-4096,8192,0,-4096,8192,8192,-4096,8192,8192,-4096,8192,0,-4096,12288,0,-4096,8192,8192,-4096,8192,8192,-4096,12288,0,-4096,12288,0,-4096,12288,0,-4096,12288,0,-4096,8192,8192,-4096,8192,8192,-4096,8192,0,-4096,8192,0,-4096,8192,0,-4096,8192,0,-4096,12288,0,-4096,12288,0,-4096,8192,0,-4096,8192,0,-4096,12288,0,-4096,8192,0,-4096,12288,0,-4096,8192,8192,-4096,12288,0,-4096,12288,0,-4096,12288,0,-4096,12288,0,-4096,8192,8192,-4096,8192,8192,-4096,8192,8192,-4096,12288,0,-4096,8192,0,-4096,8192,0,-4096,12288,0,-4096,8192,0,-4096,12288,0,-4096,12288,0,-4096,12288,0,-4096,8192,0,-4096,12288,0,-4096,12288,0,-4096,12288,0,-4096,12288,0,-4096,8192,0,-4096,8192,8192,-4096,8192,8192,-4096,8192,8192,-4096,8192,0,-4096,12288,0,-4096,12288,0,-4096,12288,0,-4096,8192,8192,-4096,12288,0,-4096,12288,0,-4096,8192,0,-4096,8192,0,-4096,8192,0,-4096,8192,0,-4096,8192,0,-4096,12288,0,-4096,12288,0,-4096,12288,0,-4096,12288,0,-4096,8192,8192,-4096,8192,8192,-4096,8192,0,-4096,8192,0,-4096,8192,0,-4096,8192,0,-4096,12288,0,-4096,12288,0,-4096,12288,0,-4096,8192,0,-4096,8192,0,-4096,8192,0,-4096,12288,0,-4096,8192,0,-4096,12288,0,-4096,8192,0,-4096,12288,0,-4096,8192,0,-4096,8192,8192,-4096,8192,8192,-4096,8192,0,-4096,12288,0,-4096,8192,8192,-4096,8192,0,-4096,8192,0,-4096,12288,0,-4096,8192,0,-4096,8192,0,-4096,8192,0,-4096,8192,0,-4096,8192,0,-4096,12288,0,-4096,8192,0,-4096,8192,0,-4096,8192,0,-4096,8192,8192,-4096,8192,0,-4096,12288,0,-4096,8192,8192,-4096,12288,0,-4096,12288,0,-4096,12288,0,-4096,12288,0,-4096,12288,0,-4096,12288,0,-4096,12288,0,-4096,12288,0,-4096,8192,0,-4096,8192,0,-4096,8192,0,-4096,8192,0,-4096,12288,0,-4096,12288,0,-4096,12288,0,-4096,12288,0,-4096,12288,0,-4096,12288,0,-4096,12288,0,-4096,12288,0,-4096,8192,8192,-4096,12288,0,-4096,12288,0,-4096,8192,8192,-4096,8192,0,-4096,12288,0,-4096,8192,0,-4096,12288,0,-4096,12288,0,-4096,12288,0,-4096,12288,0,-4096,8192,8192,-4096,8192,0,-4096,8192,0,-4096,8192,0,-4096,12288,0,-4096,8192,0,-4096,12288,0,-4096,12288,0,-4096,8192,0,-4096,8192,8192,-4096,8192,8192,-4096,8192,8192,-4096,8192,0,-4096,8192,8192,-4096,8192,0,-4096,8192,0,-4096,8192,0,-4096,12288,0,-4096,12288,0,-4096,12288,0,-4096,8192,0,-4096,12288,0,-4096,8192,0,-4096,8192,8192,-4096,8192,8192,-4096,8192,8192,-4096,8192,8192,-4096,12288,0,-4096,8192,8192,-4096,8192,8192,-4096,8192,8192,-4096,8192,8192,-4096,8192,8192,-4096,8192,0,-4096,8192,8192,-4096,12288,0,-4096,12288,0,-4096,8192,8192,-4096,8192,8192,-4096,12288,0,-4096,12288,0,-4096,8192,8192,-4096,12288,0,-4096,8192,8192,-4096,8192,8192,-4096,8192,8192,-4096,8192,8192,-4096,8192,0,-4096,12288,0,-4096,8192,0,-4096,8192,0,-4096,8192,8192,-4096,8192,8192,-4096,12288,0,-4096,8192,8192,-4096,12288,0,-4096,8192,8192,-4096,12288,0,-4096,8192,0,-4096,12288,0,-4096,12288,0,-4096,8192,8192,-4096,8192,8192,-4096,12288,0,-4096,12288,0,-4096,8192,0,-4096,12288,0,-4096,12288,0,-4096,8192,0,-4096,12288,0,-4096,12288,0,-4096,8192,8192,-4096,12288,0,-4096,8192,0,-4096,12288,0,-4096,12288,0,-4096,8192,0,-4096,8192,0,-4096,12288,0,-4096,8192,0,-4096,12288,0,-4096,12288,0,-4096,8192,0,-4096,8192,8192,-4096,12288,0,-4096,8192,0,-4096,8192,0,-4096,8192,0,-4096,8192,0,-4096,8192,8192,-4096,8192,0,-4096,8192,0,-4096,8192,0,-4096,12288,0,-4096,8192,0,-4096,8192,0,-4096,8192,0,-4096,8192,8192,-4096,12288,0,-4096,8192,0,-4096,8192,0,-4096,12288,0,-4096,12288,0,-4096,12288,0,-4096,12288,0,-4096,8192,0,-4096,8192,8192,-4096,8192,8192,-4096,8192,0,-4096,12288,0,-4096,8192,0,-4096,8192,0,-4096,8192,8192,-4096,8192,0,-4096,12288,0,-4096,12288,0,-4096,12288,0,-4096,8192,8192,-4096,8192,8192,-4096,12288,0,-4096,12288,0,-4096,12288,0,-4096,8192,0,-4096,8192,0,-4096,8192,8192,-4096,8192,0,-4096,12288,0,-4096,12288,0,-4096,12288,0,-4096,12288,0,-4096,12288,0,-4096,12288,0,-4096,12288,0,-4096,12288,0,-4096,12288,0,-4096,12288,0,-4096,12288,0,-4096,8192,8192,-4096,8192,0,-4096,12288,0,-4096,12288,0,-4096,8192,0,-4096,8192,0,-4096,12288,0,-4096,12288,0,-4096,12288,0,-4096,8192,8192,-4096,12288,0,-4096,8192,8192,-4096,12288,0,-4096,8192,0,-4096,8192,8192,-4096,8192,0,-4096,8192,8192,-4096,12288,0,-4096,8192,0,-4096,8192,0,-4096,8192,0,-4096,12288,0,-4096,12288,0,-4096,12288,0,-4096,12288,0,-4096,8192,0,-4096,8192,0,-4096,8192,0,-4096,12288,0,-4096,8192,0,-4096,12288,0,-4096,8192,0,-4096,12288,0,-4096,8192,0,-4096,8192,0,-4096,12288,0,-4096,12288,0,-4096,12288,0,-4096,8192,0,-4096,8192,0,-4096,8192,0,-4096,12288,0,-4096,12288,0,-4096,8192,0,-4096,8192,0,-4096,8192,0,-4096,8192,0,-4096,12288,0,-4096,8192,0,-4096,8192,0,-4096,8192,0,-4096,8192,0,-4096,8192,8192,-4096,8192,0,-4096,8192,0,-4096,8192,8192,-4096,8192,8192,-4096,8192,8192,-4096,12288,0,-4096,12288,0,-4096,12288,0,-4096,8192,8192,-4096,8192,8192,-4096,8192,0,-4096,8192,8192,-4096,8192,0,-4096,8192,0,-4096,12288,0,-4096,12288,0,-4096,12288,0,-4096,8192,0,-4096,12288,0,-4096,8192,8192,-4096,8192,8192,-4096,8192,0,-4096,8192,0,-4096,12288,0,-4096,12288,0,-4096,8192,0,-4096,8192,0,-4096,8192,0,-4096,8192,8192,-4096,12288,0,-4096,12288,0,-4096,8192,8192,-4096,8192,0,-4096,8192,0,-4096,8192,8192,-4096,8192,8192,-4096,8192,8192,-4096,8192,0,-4096,12288,0,-4096,12288,0,-4096,12288,0,-4096,12288,0,-4096,12288,0,-4096,8192,0,-4096,8192,0,-4096,12288,0,-4096,12288,0,-4096,12288,0,-4096,12288,0,-4096,12288,0,-4096,8192,0,-4096,12288,0,-4096,12288,0,-4096,8192,8192,-4096,8192,0,-4096,8192,0,-4096,12288,0,-4096,12288,0,-4096,8192,0,-4096,12288,0,-4096,8192,0,-4096,12288,0,-4096,12288,0,-4096,12288,0,-4096,8192,8192,-4096,8192,0,-4096,12288,0,-4096,12288,0,-4096,8192,0,-4096,8192,0,-4096,12288,0,-4096,8192,8192,-4096,8192,0,-4096,8192,0,-4096,12288,0,-4096,12288,0,-4096,8192,0,-4096,8192,8192,-4096,8192,0,-4096,12288,0,-4096,12288,0,-4096,12288,0,-4096,8192,0,-4096,8192,0,-4096,8192,0,-4096,12288,0,-4096,8192,0,-4096,12288,0,-4096,12288,0,-4096,12288,0,-4096,12288,0,-4096,12288,0,-4096,12288,0,-4096,12288,0,-4096,12288,0,-4096,12288,0,-4096,12288,0,-4096,12288,0,-4096,12288,0,-4096,8192,0,-4096,12288,0,-4096,8192,0,-4096,8192,8192,-4096,12288,0,-4096,8192,0,-4096,12288,0,-4096,8192,0,-4096,12288,0,-4096,8192,0,-4096,8192,0,-4096,12288,0,-4096,8192,0,-4096,12288,0,-4096,8192,0,-4096,8192,8192,-4096,8192,8192,-4096,12288,0,-4096,8192,8192,-4096,8192,0,-4096,8192,8192,-4096,8192,8192,-4096,12288,0,-4096,12288,0,-4096,12288,0,-4096,12288,0,-4096,8192,0,-4096,8192,0,-4096,8192,0,-4096,8192,0,-4096,8192,0,-4096,12288,0,-4096,12288,0,-4096,8192,0,-4096,12288,0,-4096,12288,0,-4096,8192,0,-4096,12288,0,-4096,8192,8192,-4096,12288,0,-4096,8192,0,-4096,8192,8192,-4096,8192,0,-4096,8192,8192,-4096,12288,0,-4096,8192,0,-4096,8192,0,-4096,8192,0,-4096,12288,0,-4096,12288,0,-4096,12288,0,-4096,12288,0,-4096,8192,8192,-4096,12288,0,-4096,8192,0,-4096,8192,0,-4096,12288,0,-4096,8192,8192,-4096,8192,0,-4096,8192,0,-4096,8192,0,-4096,12288,0,-4096,8192,8192,-4096,12288,0,-4096,12288,0,-4096,8192,8192,-4096,12288,0,-4096,8192,0,-4096,8192,8192,-4096,12288,0,-4096,8192,0,-4096,12288,0,-4096,8192,8192,-4096,8192,8192,-4096,12288,0,-4096,12288,0,-4096,12288,0,-4096,8192,0,-4096,12288,0,-4096,12288,0,-4096,12288,0,-4096,12288,0,-4096,8192,8192,-4096,12288,0,-4096,12288,0,-4096,8192,8192,-4096,12288,0,-4096,12288,0,-4096,12288,0,-4096,8192,8192,-4096,8192,8192,-4096,12288,0,-4096,8192,8192,-4096,8192,8192,-4096,8192,0,-4096,8192,0,-4096,12288,0,-4096,8192,0,-4096,12288,0,-4096,12288,0,-4096,12288,0,-4096,12288,0,-4096,12288,0,-4096,12288,0,-4096,12288,0,-4096,12288,0,-4096,12288,0,-4096,12288,0,-4096,8192,0,-4096,12288,0,-4096,12288,0,-4096,12288,0,-4096,12288,0,-4096,12288,0,-4096,8192,8192,-4096,12288,0,-4096,12288,0,-4096,12288,0,-4096,8192,0,-4096,12288,0,-4096,12288,0,-4096,12288,0,-4096,12288,0,-4096,12288,0,-4096,8192,0,-4096,8192,0,-4096,8192,8192,-4096,8192,0,-4096,8192,0,-4096,8192,0,-4096,8192,0,-4096,12288,0,-4096,8192,8192,-4096,12288,0,-4096,12288,0,-4096,8192,8192,-4096,8192,8192,-4096,8192,0,-4096,8192,0,-4096,12288,0,-4096,12288,0,-4096,12288,0,-4096,12288,0,-4096,12288,0,-4096,8192,8192,-4096,8192,8192,-4096,8192,0,-4096,12288,0,-4096,12288,0,-4096,12288,0,-4096,12288,0,-4096,8192,0,-4096,8192,8192,-4096,8192,8192,-4096,12288,0,-4096,12288,0,-4096,12288,0,-4096,12288,0,-4096,12288,0,-4096,12288,0,-4096,12288,0,-4096,12288,0,-4096,12288,0,-4096,8192,0,-4096,12288,0,-4096,8192,8192,-4096,8192,8192,-4096,8192,8192,-4096,8192,0,-4096,8192,8192,-4096,12288,0,-4096,12288,0,-4096,8192,0,-4096,8192,0,-4096,8192,0,-4096,8192,0,-4096,8192,0,-4096,12288,0,-4096,12288,0,-4096,12288,0,-4096,12288,0,-4096,8192,0,-4096,12288,0,-4096,12288,0,-4096,8192,0,-4096,12288,0,-4096,8192,0,-4096,12288,0,-4096,12288,0,-4096,12288,0,-4096,12288,0,-4096,12288,0,-4096,8192,8192,-4096,8192,0,-4096,8192,0,-4096,8192,0,-4096,12288,0,-4096,12288,0,-4096,8192,8192,-4096,8192,8192,-4096,12288,0,-4096,8192,8192,-4096,8192,8192,-4096,8192,8192,-4096,12288,0,-4096,12288,0,-4096,12288,0,-4096,8192,0,-4096,8192,8192,-4096,12288,0,-4096,8192,8192,-4096,12288,0,-4096,8192,0,-4096,12288,0,-4096,8192,0,-4096,8192,8192,-4096,12288,0,-4096,8192,0,-4096,12288,0,-4096,8192,8192,-4096,12288,0,-4096,8192,0,-4096,12288,0,-4096,8192,0,-4096,8192,0,-4096,12288,0,-4096,12288,0,-4096,8192,0,-4096,8192,0,-4096,8192,0,-4096,8192,8192,-4096,12288,0,-4096,12288,0,-4096,12288,0,-4096,12288,0,-4096,12288,0,-4096,8192,0,-4096,8192,8192,-4096,8192,0,-4096,8192,0,-4096,12288,0,-4096,8192,0,-4096,12288,0,-4096,12288,0,-4096,8192,8192,-4096,8192,0,-4096,12288,0,-4096,12288,0,-4096,8192,0,-4096,8192,0,-4096,8192,0,-4096,12288,0,-4096,8192,0,-4096,8192,0,-4096,12288,0,-4096,8192,8192,-4096,8192,8192,-4096,8192,8192,-4096,12288,0,-4096,8192,0,-4096,12288,0,-4096,8192,8192,-4096,12288,0,-4096,8192,0,-4096,12288,0,-4096,12288,0,-4096,8192,0,-4096,8192,8192,-4096,12288,0,-4096,8192,8192,-4096,8192,0,-4096,8192,8192,-4096,8192,8192,-4096,8192,8192,-4096,12288,0,-4096,8192,0,-4096,12288,0,-4096,8192,8192,-4096,12288,0,-4096,12288,0,-4096,12288,0,-4096,12288,0,-4096,12288,0,-4096,12288,0,-4096,12288,0,-4096,8192,0,-4096,12288,0,-4096,12288,0,-4096,8192,8192,-4096,8192,0,-4096,12288,0,-4096,8192,8192,-4096,8192,8192,-4096,8192,8192,-4096,8192,8192,-4096,8192,0,-4096,8192,0,-4096,12288,0,-4096,8192,8192,-4096,8192,8192,-4096,12288,0,-4096,12288,0,-4096,12288,0,-4096,12288,0,-4096,12288,0,-4096,8192,0,-4096,8192,0,-4096,12288,0,-4096,8192,0,-4096,12288,0,-4096,12288,0,-4096,12288,0,-4096,8192,0,-4096,8192,8192,-4096,12288,0,-4096,12288,0,-4096,12288,0,-4096,12288,0,-4096,12288,0,-4096,8192,8192,-4096,8192,0,-4096,8192,0,-4096,8192,8192,-4096,8192,0,-4096,8192,8192,-4096,8192,8192,-4096,8192,8192,-4096,12288,0,-4096,8192,8192,-4096,12288,0,-4096,8192,0,-4096,12288,0,-4096,8192,0,-4096,8192,0,-4096,8192,0,-4096,8192,0,-4096,8192,8192,-4096,12288,0,-4096,12288,0,-4096,12288,0,-4096,12288,0,-4096,8192,8192,-4096,8192,8192,-4096,8192,8192,-4096,8192,8192,-4096,12288,0,-4096,8192,0,-4096,8192,8192,-4096,8192,8192,-4096,12288,0,-4096,12288,0,-4096,8192,0,-4096,12288,0,-4096,12288,0,-4096,8192,8192,-4096,8192,8192,-4096,8192,8192,-4096,8192,8192,-4096,8192,8192,-4096,12288,0,-4096,8192,0,-4096,8192,0,-4096,8192,0,-4096,12288,0,-4096,8192,0,-4096,8192,0,-4096,8192,0,-4096,8192,0,-4096,12288,0,-4096,8192,0,-4096,12288,0,-4096,12288,0,-4096,12288,0,-4096,12288,0,-4096,12288,0,-4096,12288,0,-4096,12288,0,-4096,12288,0,-4096,12288,0,-4096,8192,0,-4096,12288,0,-4096,12288,0,-4096,12288,0,-4096,8192,0,-4096,8192,0,-4096,8192,0,-4096,12288,0,-4096,8192,0,-4096,12288,0,-4096,8192,0,-4096,8192,0,-4096,12288,0,-4096,12288,0,-4096,8192,0,-4096,8192,8192,-4096,12288,0,-4096,12288,0,-4096,12288,0,-4096,8192,8192,-4096,8192,0,-4096,8192,0,-4096,12288,0,-4096,12288,0,-4096,12288,0,-4096,12288,0,-4096,8192,8192,-4096,12288,0,-4096,8192,0,-4096,8192,0,-4096,8192,0,-4096,12288,0,-4096,12288,0,-4096,12288,0,-4096,12288,0,-4096,12288,0,-4096,12288,0,-4096,8192,8192,-4096,8192,8192,-4096,8192,8192,-4096,8192,8192,-4096,12288,0,-4096,12288,0,-4096,8192,8192,-4096,12288,0,-4096,12288,0,-4096,12288,0,-4096,8192,8192,-4096,12288,0,-4096,12288,0,-4096,8192,0,-4096,8192,0,-4096,12288,0,-4096,12288,0,-4096,8192,8192,-4096,12288,0,-4096,12288,0,-4096,12288,0,-4096,12288,0,-4096,8192,8192,-4096,12288,0,-4096,12288,0,-4096,8192,8192,-4096,8192,0,-4096,8192,0,-4096,8192,8192,-4096,12288,0,-4096,12288,0,-4096,12288,0,-4096,12288,0,-4096,8192,8192,-4096,12288,0,-4096,8192,8192,-4096,12288,0,-4096,12288,0,-4096,8192,0,-4096,12288,0,-4096,8192,8192,-4096,8192,8192,-4096,8192,8192,-4096,12288,0,-4096,12288,0,-4096,12288,0,-4096,12288,0,-4096,12288,0,-4096,12288,0,-4096,8192,0,-4096,8192,0,-4096,12288,0,-4096,12288,0,-4096,12288,0,-4096,8192,0,-4096,12288,0,-4096,12288,0,-4096,12288,0,-4096,12288,0,-4096,12288,0,-4096,12288,0,-4096,8192,0,-4096,8192,0,-4096,12288,0,-4096,12288,0,-4096,12288,0,-4096,8192,8192,-4096,12288,0,-4096,12288,0,-4096,12288,0,-4096,12288,0,-4096,12288,0,-4096,12288,0,-4096,8192,0,-4096,8192,8192,-4096,8192,0,-4096,8192,0,-4096,12288,0,-4096,8192,0,-4096,8192,0,-4096,8192,0,-4096,8192,8192,-4096,8192,0,-4096,8192,0,-4096,8192,0,-4096,12288,0,-4096,8192,0,-4096,12288,0,-4096,8192,8192,-4096,8192,8192,-4096,12288,0,-4096,8192,0,-4096,12288,0,-4096,12288,0,-4096,12288,0,-4096,12288,0,-4096,12288,0,-4096,12288,0,-4096,12288,0,-4096,8192,0,-4096,8192,8192,-4096,8192,8192,-4096,8192,0,-4096,12288,0,-4096,12288,0,-4096,8192,0,-4096,8192,0,-4096,8192,0,-4096,8192,0,-4096,8192,8192,-4096,8192,0,-4096,8192,8192,-4096,12288,0,-4096,8192,0,-4096,8192,8192,-4096,8192,8192,-4096,12288,0,-4096,8192,0,-4096,12288,0,-4096,12288,0,-4096,12288,0,-4096,12288,0,-4096,8192,0,-4096,8192,8192,-4096,12288,0,-4096,8192,8192,-4096,8192,8192,-4096,8192,8192,-4096,8192,8192,-4096,12288,0,-4096,12288,0,-4096,8192,0,-4096,8192,0,-4096,12288,0,-4096,8192,0,-4096,8192,0,-4096,8192,0,-4096,12288,0,-4096,12288,0,-4096,12288,0,-4096,12288,0,-4096,8192,0,-4096,8192,0,-4096,12288,0,-4096,12288,0,-4096,12288,0,-4096,12288,0,-4096,12288,0,-4096,12288,0,-4096,12288,0,-4096,12288,0,-4096,12288,0,-4096,12288,0,-4096,8192,0,-4096,8192,8192,-4096,8192,0,-4096,8192,8192,-4096,8192,8192,-4096,8192,8192,-4096,8192,0,-4096,12288,0,-4096,8192,0,-4096,8192,0,-4096,12288,0,-4096,12288,0,-4096,8192,8192,-4096,12288,0,-4096,8192,0,-4096,8192,0,-4096,12288,0,-4096,12288,0,-4096,12288,0,-4096,12288,0,-4096,8192,8192,-4096,8192,8192,-4096,8192,8192,-4096,12288,0,-4096,8192,8192,-4096,12288,0,-4096,12288,0,-4096,12288,0,-4096,12288,0,-4096,8192,8192,-4096,8192,8192,-4096,8192,0,-4096,8192,0,-4096,8192,8192,-4096,8192,8192,-4096,12288,0,-4096,12288,0,-4096,8192,8192,-4096,12288,0,-4096,8192,8192,-4096,8192,0,-4096,8192,0,-4096,8192,0,-4096,8192,0,-4096,8192,0,-4096,12288,0,-4096,12288,0,-4096,12288,0,-4096,8192,8192,-4096,12288,0,-4096,12288,0,-4096,8192,8192,-4096,8192,8192,-4096,8192,0,-4096,8192,0,-4096,8192,0,-4096,12288,0,-4096,8192,8192,-4096,12288,0,-4096,8192,0,-4096,8192,0,-4096,8192,8192,-4096,12288,0,-4096,12288,0,-4096,8192,0,-4096,8192,8192,-4096,8192,8192,-4096,8192,0,-4096,8192,0,-4096,8192,8192,-4096,8192,0,-4096,8192,0,-4096,12288,0,-4096,12288,0,-4096,8192,0,-4096,8192,0,-4096,8192,0,-4096,12288,0,-4096,8192,8192,-4096,12288,0,-4096,12288,0,-4096,12288,0,-4096,12288,0,-4096,8192,0,-4096,8192,0,-4096,8192,0,-4096,12288,0,-4096,8192,0,-4096,8192,0,-4096,12288,0,-4096,12288,0,-4096,12288,0,-4096,12288,0,-4096,12288,0,-4096,8192,0,-4096,8192,8192,-4096,12288,0,-4096,12288,0,-4096,12288,0,-4096,8192,0,-4096,12288,0,-4096,12288,0,-4096,8192,0,-4096,8192,0,-4096,8192,0,-4096,12288,0,-4096,12288,0,-4096,12288,0,-4096,8192,8192,-4096,12288,0,-4096,8192,0,-4096,8192,8192,-4096,8192,8192,-4096,12288,0,-4096,12288,0,-4096,12288,0,-4096,8192,8192,-4096,8192,0,-4096,8192,0,-4096,8192,8192,-4096,8192,8192,-4096,8192,8192,-4096,8192,0,-4096,12288,0,-4096,8192,8192,-4096,12288,0,-4096,8192,0,-4096,8192,0,-4096,8192,8192,-4096,12288,0,-4096,12288,0,-4096,8192,8192,-4096,8192,0,-4096,12288,0,-4096,12288,0,-4096,8192,0,-4096,8192,0,-4096,8192,0,-4096,12288,0,-4096,8192,8192,-4096,8192,8192,-4096,12288,0,-4096,12288,0,-4096,8192,8192,-4096,12288,0,-4096,8192,0,-4096,8192,8192,-4096,12288,0,-4096,12288,0,-4096,12288,0,-4096,12288,0,-4096,12288,0,-4096,12288,0,-4096,12288,0,-4096,12288,0,-4096,12288,0,-4096,12288,0,-4096,12288,0,-4096,8192,0,-4096,8192,0,-4096,8192,0,-4096,12288,0,-4096,8192,8192,-4096,12288,0,-4096,8192,0,-4096,8192,0,-4096,8192,0,-4096,12288,0,-4096,8192,8192,-4096,12288,0,-4096,12288,0,-4096,12288,0,-4096,12288,0,-4096,8192,8192,-4096,8192,8192,-4096,8192,8192,-4096,8192,8192,-4096,8192,0,-4096,12288,0,-4096,8192,8192,-4096,12288,0,-4096,12288,0,-4096,8192,0,-4096,12288,0,-4096,8192,8192,-4096,12288,0,-4096,12288,0,-4096,8192,0,-4096,8192,0,-4096,8192,0,-4096,8192,0,-4096,8192,0,-4096,12288,0,-4096,8192,8192,-4096,8192,8192,-4096,12288,0,-4096,8192,8192,-4096,12288,0,-4096,8192,0,-4096,8192,0,-4096,12288,0,-4096,12288,0,-4096,12288,0,-4096,12288,0,-4096,12288,0,-4096,12288,0,-4096,12288,0,-4096,12288,0,-4096,12288,0,-4096,12288,0,-4096,8192,0,-4096,8192,0,-4096,12288,0,-4096,8192,0,-4096,8192,0,-4096,8192,0,-4096,12288,0,-4096,12288,0,-4096,8192,8192,-4096,8192,8192,-4096,8192,8192,-4096,12288,0,-4096,8192,8192,-4096,8192,8192,-4096,12288,0,-4096,8192,8192,-4096,8192,8192,-4096,8192,8192,-4096,12288,0,-4096,12288,0,-4096,12288,0,-4096,12288,0,-4096,12288,0,-4096,8192,0,-4096,12288,0,-4096,12288,0,-4096,8192,8192,-4096,12288,0,-4096,8192,8192,-4096,12288,0,-4096,8192,0,-4096,8192,0,-4096,8192,0,-4096,12288,0,-4096,8192,0,-4096,8192,0,-4096,12288,0,-4096,12288,0,-4096,12288,0,-4096,12288,0,-4096,12288,0,-4096,8192,8192,-4096,8192,0,-4096,12288,0,-4096,12288,0,-4096,8192,0,-4096,8192,0,-4096,12288,0,-4096,12288,0,-4096,12288,0,-4096,12288,0,-4096,12288,0,-4096,12288,0,-4096,8192,8192,-4096,8192,8192,-4096,8192,8192,-4096,8192,8192,-4096,8192,8192,-4096,8192,0,-4096,8192,0,-4096,8192,8192,-4096,12288,0,-4096,8192,8192,-4096,8192,8192,-4096,8192,0,-4096,8192,8192,-4096,12288,0,-4096,12288,0,-4096,8192,8192,-4096,12288,0,-4096,8192,8192,-4096,8192,8192,-4096,12288,0,-4096,12288,0,-4096,12288,0,-4096,12288,0,-4096,8192,0,-4096,8192,0,-4096,8192,0,-4096,12288,0,-4096,12288,0,-4096,8192,8192,-4096,12288,0,-4096,12288,0,-4096,8192,8192,-4096,8192,8192,-4096,8192,0,-4096,8192,0,-4096,12288,0,-4096,8192,8192,-4096,12288,0,-4096,12288,0,-4096,12288,0,-4096,12288,0,-4096,12288,0,-4096,8192,0,-4096,8192,0,-4096,8192,0,-4096,12288,0,-4096,8192,8192,-4096,8192,0,-4096,8192,0,-4096,12288,0,-4096,12288,0,-4096,12288,0,-4096,8192,0,-4096,8192,0,-4096,12288,0,-4096,8192,0,-4096,8192,0,-4096,8192,0,-4096,12288,0,-4096,8192,0,-4096,12288,0,-4096,8192,8192,-4096,8192,8192,-4096,8192,0,-4096,12288,0,-4096,8192,8192,-4096,8192,8192,-4096,8192,0,-4096,8192,8192,-4096,8192,0,-4096,8192,0,-4096,12288,0,-4096,12288,0,-4096,8192,8192,-4096,12288,0,-4096,12288,0,-4096,8192,8192,-4096,12288,0,-4096,12288,0,-4096,12288,0,-4096,12288,0,-4096,12288,0,-4096,12288,0,-4096,12288,0,-4096,12288,0,-4096,8192,0,-4096,8192,0,-4096,12288,0,-4096,12288,0,-4096,12288,0,-4096,8192,8192,-4096,8192,8192,-4096,12288,0,-4096,12288,0,-4096,8192,8192,-4096,8192,8192,-4096,8192,0,-4096,12288,0,-4096,12288,0,-4096,8192,8192,-4096,12288,0,-4096,8192,0,-4096,8192,0,-4096,12288,0,-4096,12288,0,-4096,8192,0,-4096,8192,0,-4096,12288,0,-4096,12288,0,-4096,8192,0,-4096,12288,0,-4096,8192,0,-4096,12288,0,-4096,8192,0,-4096,8192,0,-4096,12288,0,-4096,12288,0,-4096,12288,0,-4096,12288,0,-4096,12288,0,-4096,12288,0,-4096,12288,0,-4096,12288,0,-4096,8192,0,-4096,8192,0,-4096,8192,0,-4096,8192,8192,-4096,8192,8192,-4096,12288,0,-4096,12288,0,-4096,12288,0,-4096,8192,8192,-4096,8192,0,-4096,12288,0,-4096,12288,0,-4096,8192,0,-4096,8192,0,-4096,12288,0,-4096,8192,8192,-4096,8192,0,-4096,8192,0,-4096,12288,0,-4096,8192,0,-4096,8192,8192,-4096,12288,0,-4096,12288,0,-4096,12288,0,-4096,12288,0,-4096,8192,8192,-4096,8192,0,-4096,12288,0,-4096,8192,0,-4096,8192,0,-4096,12288,0,-4096,12288,0,-4096,12288,0,-4096,8192,0,-4096,12288,0,-4096,8192,0,-4096,12288,0,-4096,12288,0,-4096,12288,0,-4096,12288,0,-4096,12288,0,-4096,8192,0,-4096,8192,0,-4096,12288,0,-4096,8192,0,-4096,8192,0,-4096,8192,0,-4096,8192,0,-4096,8192,0,-4096,12288,0,-4096,12288,0,-4096,12288,0,-4096,8192,0,-4096,8192,0,-4096,8192,8192,-4096,12288,0,-4096,8192,8192,-4096,12288,0,-4096,8192,0,-4096,8192,0,-4096,8192,0,-4096,12288,0,-4096,12288,0,-4096,12288,0,-4096,12288,0,-4096,12288,0,-4096,8192,8192,-4096,8192,8192,-4096,8192,8192,-4096,12288,0,-4096,8192,0,-4096,8192,8192,-4096,8192,0,-4096,8192,8192,-4096,8192,8192,-4096,8192,8192,-4096,8192,8192,-4096,12288,0,-4096,12288,0,-4096,12288,0,-4096,12288,0,-4096,8192,0,-4096,12288,0,-4096,8192,8192,-4096,12288,0,-4096,12288,0,-4096,8192,0,-4096,8192,0,-4096,8192,0,-4096,8192,0,-4096,8192,0,-4096,8192,8192,-4096,8192,8192,-4096,12288,0,-4096,8192,8192,-4096,8192,8192,-4096,8192,8192,-4096,8192,8192,-4096,8192,8192,-4096,12288,0,-4096,12288,0,-4096,12288,0,-4096,12288,0,-4096,12288,0,-4096,12288,0,-4096,12288,0,-4096,12288,0,-4096,12288,0,-4096,12288,0,-4096,12288,0,-4096,8192,0,-4096,8192,0,-4096,8192,0,-4096,8192,8192,-4096,8192,8192,-4096,8192,0,-4096,12288,0,-4096,8192,0,-4096,12288,0,-4096,12288,0,-4096,12288,0,-4096,12288,0,-4096,12288,0,-4096,8192,8192,-4096,12288,0,-4096,12288,0,-4096,12288,0,-4096,12288,0,-4096,8192,0,-4096,8192,8192,-4096,12288,0,-4096,12288,0,-4096,12288,0,-4096,12288,0,-4096,8192,0,-4096,8192,8192,-4096,12288,0,-4096,12288,0,-4096,12288,0,-4096,12288,0,-4096,12288,0,-4096,12288,0,-4096,12288,0,-4096,8192,8192,-4096,12288,0,-4096,12288,0,-4096,12288,0,-4096,12288,0,-4096,8192,8192,-4096,8192,0,-4096,12288,0,-4096,12288,0,-4096,8192,0,-4096,8192,0,-4096,8192,8192,-4096,8192,8192,-4096,8192,0,-4096,8192,0,-4096,8192,0,-4096,8192,0,-4096,8192,0,-4096,8192,0,-4096,12288,0,-4096,8192,8192,-4096,8192,0,-4096,12288,0,-4096,12288,0,-4096,12288,0,-4096,8192,0,-4096,12288,0,-4096,8192,0,-4096,12288,0,-4096,8192,8192,-4096,8192,8192,-4096,8192,8192,-4096,8192,8192,-4096,8192,8192,-4096,8192,8192,-4096,8192,8192,-4096,8192,8192,-4096,8192,8192,-4096,12288,0,-4096,12288,0,-4096,12288,0,-4096,12288,0,-4096,12288,0,-4096,12288,0,-4096,8192,0,-4096,12288,0,-4096,12288,0,-4096,12288,0,-4096,8192,8192,-4096,8192,8192,-4096,8192,0,-4096,8192,0,-4096,8192,8192,-4096,8192,8192,-4096,12288,0,-4096,8192,8192,-4096,12288,0,-4096,8192,0,-4096,12288,0,-4096,12288,0,-4096,12288,0,-4096,12288,0,-4096,12288,0,-4096,12288,0,-4096,12288,0,-4096,8192,0,-4096,8192,8192
